digraph Tree {
node [shape=box, fontname="helvetica"] ;
edge [fontname="helvetica"] ;
0 [label="Contract_Month-to-month <= 0.5\ngini = 0.39\nsamples = 5625\nvalue = [4130, 1495]\nclass = No"] ;
1 [label="MonthlyCharges <= 93.775\ngini = 0.121\nsamples = 2529\nvalue = [2365, 164]\nclass = No"] ;
0 -> 1 [labeldistance=2.5, labelangle=45, headlabel="True"] ;
2 [label="Contract_Two year <= 0.5\ngini = 0.071\nsamples = 1912\nvalue = [1842, 70]\nclass = No"] ;
1 -> 2 ;
3 [label="gini = 0.128\nsamples = 860\nvalue = [801, 59]\nclass = No"] ;
2 -> 3 ;
4 [label="gini = 0.021\nsamples = 1052\nvalue = [1041, 11]\nclass = No"] ;
2 -> 4 ;
5 [label="Contract_One year <= 0.5\ngini = 0.258\nsamples = 617\nvalue = [523, 94]\nclass = No"] ;
1 -> 5 ;
6 [label="gini = 0.127\nsamples = 308\nvalue = [287, 21]\nclass = No"] ;
5 -> 6 ;
7 [label="gini = 0.361\nsamples = 309\nvalue = [236, 73]\nclass = No"] ;
5 -> 7 ;
8 [label="InternetService_Fiber optic <= 0.5\ngini = 0.49\nsamples = 3096\nvalue = [1765, 1331]\nclass = No"] ;
0 -> 8 [labeldistance=2.5, labelangle=-45, headlabel="False"] ;
9 [label="tenure <= 5.5\ngini = 0.405\nsamples = 1399\nvalue = [1004, 395]\nclass = No"] ;
8 -> 9 ;
10 [label="gini = 0.483\nsamples = 583\nvalue = [345, 238]\nclass = No"] ;
9 -> 10 ;
11 [label="gini = 0.311\nsamples = 816\nvalue = [659, 157]\nclass = No"] ;
9 -> 11 ;
12 [label="tenure <= 13.5\ngini = 0.495\nsamples = 1697\nvalue = [761, 936]\nclass = Yes"] ;
8 -> 12 ;
13 [label="gini = 0.411\nsamples = 776\nvalue = [224, 552]\nclass = Yes"] ;
12 -> 13 ;
14 [label="gini = 0.486\nsamples = 921\nvalue = [537, 384]\nclass = No"] ;
12 -> 14 ;
}